9 128
3 -0.027253957 -0.16529736 -0.10209529 0.16712256 -0.044739794 0.2623178 0.10861041 -0.14974849 0.0060683656 0.11378455 -0.22591579 -0.12772413 -0.1300266 -0.094879344 -0.0018786989 -0.1811486 -0.03333529 -0.004715417 0.0889108 0.09650973 -0.13831478 -0.034490794 -0.06343221 -0.0018383729 0.0032525468 -0.16090818 -0.019562438 -0.10637365 0.064611144 0.0527603 0.09058094 0.09834365 -0.05292701 0.026435453 0.05787925 0.081819475 -0.2690828 -0.016128317 -0.055983506 -0.17523986 0.16817772 0.017285706 0.07158225 -0.20019507 0.06197095 -0.2090138 0.09126922 -0.09231218 -0.12957183 -0.06745326 0.04575652 0.18566911 -0.19736458 0.08492652 0.06012595 0.029026836 -0.012260265 0.078914285 -0.021241235 0.080386885 -0.12162988 0.15819438 -0.041973166 0.101605 0.1729266 -0.041853666 0.016190061 0.008903642 -0.002509909 -0.12706868 0.0164123 -0.15897693 0.08417007 -0.025062393 0.08488547 0.032111764 -0.027302142 -0.14273171 0.11204853 0.14409937 0.054765373 0.091942355 -0.15314591 0.07482003 -0.017865064 0.12292014 -0.0054762885 0.04604706 0.009371593 0.012135646 0.15417187 -0.015011612 0.0024258504 0.030069888 0.030278724 0.0057986686 -0.028631704 0.0075060907 0.021889932 0.052268233 0.010695591 0.16102307 -0.20652534 -0.04552447 0.13233478 0.060073286 -0.040726908 -0.03807244 -0.09223312 0.10839522 0.08265676 0.004721931 -0.033863902 -0.08919726 0.031226665 0.08192838 -0.1122694 -0.08016128 -0.14683333 -0.25593325 0.24048431 0.0651251 -0.00081768 0.07795234 0.028320821 0.13996254 0.008594278 -0.104955174
2 -0.029193047 -0.16431303 -0.10211415 0.16710591 -0.038468555 0.258028 0.10605528 -0.14698091 -0.0006058507 0.11248157 -0.22837573 -0.121032305 -0.13323459 -0.09605737 -0.00080459507 -0.1746177 -0.03513222 -0.0019089733 0.09166432 0.09563279 -0.13711767 -0.035784587 -0.05744525 0.0032655494 -0.0022500718 -0.16417104 -0.017634662 -0.10625779 0.0669334 0.04946285 0.085900754 0.09520819 -0.055853266 0.02413091 0.05553119 0.08398924 -0.26380283 -0.013158164 -0.054528642 -0.17185321 0.165996 0.015378497 0.06714377 -0.19920544 0.059690263 -0.20777498 0.08991243 -0.09103206 -0.13308083 -0.07037844 0.0470666 0.18354452 -0.19374004 0.08397095 0.0642158 0.03059036 -0.011565766 0.07856491 -0.022058858 0.07569166 -0.12308549 0.15763289 -0.04527172 0.10745033 0.16997738 -0.039567366 0.020003106 0.009230365 -0.0047073415 -0.12923855 0.016295716 -0.1586463 0.08550389 -0.025452329 0.087243624 0.037044063 -0.032053795 -0.14421047 0.10774993 0.13780856 0.052761327 0.09093628 -0.14574733 0.07582408 -0.02341711 0.122741856 -0.008440299 0.0450447 0.010240188 0.01827026 0.15208116 -0.01682782 0.007931217 0.030011378 0.02626233 0.00897043 -0.031695683 0.008361917 0.023751808 0.05042148 0.014838593 0.16361785 -0.20753033 -0.046488065 0.1272027 0.06357159 -0.038944874 -0.04080515 -0.08913441 0.108165264 0.08159274 0.00990476 -0.030271959 -0.08921812 0.02955435 0.08223355 -0.10479652 -0.07989108 -0.1429684 -0.25693548 0.24124844 0.06311522 -0.0066922707 0.083196394 0.028761549 0.13640326 0.008455036 -0.098176055
9 -0.028637372 -0.17382893 -0.10522157 0.16987355 -0.043797012 0.27176479 0.10804626 -0.15321057 -0.003043352 0.11319538 -0.24055575 -0.13206619 -0.1349309 -0.10597218 -0.008241066 -0.18826142 -0.032615803 0.0033549254 0.09260621 0.09530815 -0.1431591 -0.03434441 -0.061978705 -0.0015173143 0.004324917 -0.1716064 -0.015732815 -0.116460085 0.06869323 0.05454024 0.09871962 0.10098917 -0.057296213 0.029188965 0.062791735 0.08507141 -0.27972668 -0.014565616 -0.06367996 -0.17912674 0.17130128 0.022199892 0.06995376 -0.21059434 0.06226731 -0.21717653 0.09690784 -0.09215571 -0.13924204 -0.072456725 0.054924913 0.19265239 -0.20422795 0.0879262 0.06931469 0.027804026 -0.014791193 0.08737053 -0.026362587 0.08103631 -0.12334316 0.16508894 -0.045763362 0.113089 0.18721241 -0.045938622 0.01295357 0.0032849198 -0.011276482 -0.1309514 0.017264016 -0.16475996 0.091814116 -0.017842678 0.0867654 0.03614834 -0.03445649 -0.15598486 0.114295974 0.15129468 0.055005703 0.10103214 -0.15298782 0.07727435 -0.027152166 0.12745143 -0.009593909 0.047989994 0.00951319 0.015015284 0.16198228 -0.020777484 0.0037832088 0.02599566 0.031263392 0.00629799 -0.023557127 0.0031877314 0.020860381 0.059655692 0.014516608 0.16881397 -0.21760832 -0.04812803 0.13997355 0.0604691 -0.04776059 -0.041674983 -0.09388531 0.10965172 0.0879427 0.0048979316 -0.031142792 -0.0993838 0.027383892 0.08434847 -0.11717665 -0.08806885 -0.14907248 -0.2697009 0.24996679 0.06961258 -4.2168474e-05 0.083171375 0.030122742 0.14089358 0.0129357455 -0.111153916
6 -0.034920927 -0.16939978 -0.10912569 0.16927831 -0.045425117 0.27084953 0.112964265 -0.1539111 0.00044697922 0.114664264 -0.23644744 -0.1279743 -0.13474846 -0.10279676 -0.005259457 -0.18610501 -0.03216636 0.0019915118 0.09493698 0.09651231 -0.14119604 -0.03655802 -0.0609408 0.0011199068 0.0011579257 -0.1685766 -0.015749702 -0.115708895 0.066359915 0.05076822 0.097562 0.10044744 -0.05127094 0.02693857 0.061479744 0.08400651 -0.27474928 -0.012768937 -0.057337098 -0.17568626 0.17037895 0.018273061 0.07420912 -0.20225409 0.06781177 -0.20735662 0.097546145 -0.09197537 -0.13290052 -0.06842921 0.052030057 0.18961173 -0.19963779 0.088038325 0.060992286 0.027158435 -0.010803856 0.08399185 -0.026275821 0.08096215 -0.12726413 0.1654387 -0.046045173 0.110969916 0.18211196 -0.042756062 0.015214216 -4.221853e-05 -0.010887647 -0.13341856 0.016021447 -0.16806369 0.09200922 -0.022046741 0.08299022 0.035753265 -0.03509398 -0.15013058 0.10919455 0.14639765 0.058144275 0.09977967 -0.15184908 0.0702879 -0.021045826 0.1257163 -0.0047550197 0.047067143 0.009536805 0.01677529 0.15551265 -0.018826304 0.0036615722 0.023745753 0.03053898 0.00037802116 -0.027824802 0.005944819 0.021112641 0.059256315 0.013839305 0.17375772 -0.21691704 -0.04886991 0.13797276 0.062310807 -0.04791512 -0.040007703 -0.09400651 0.10702848 0.089923255 0.011032495 -0.032714095 -0.09417506 0.03406459 0.08124585 -0.11225845 -0.083849356 -0.15274169 -0.25967503 0.25084975 0.06666972 -0.0032125798 0.07616496 0.029637221 0.14219749 0.013151449 -0.10811282
5 -0.029483784 -0.15580307 -0.09901033 0.16216414 -0.042160116 0.25328022 0.10569124 -0.1464788 0.004482444 0.106246196 -0.22180934 -0.12260328 -0.12529382 -0.097266905 -0.0071059237 -0.17576462 -0.02866784 -0.004649777 0.082633324 0.09282112 -0.13414113 -0.03218706 -0.057797052 -0.00017158242 -0.0021810292 -0.15657881 -0.014847824 -0.10693385 0.064902365 0.044381864 0.08160611 0.09399711 -0.055343285 0.020975985 0.05175555 0.08149531 -0.252989 -0.0124479355 -0.05608709 -0.16818658 0.16141596 0.013115843 0.06636796 -0.19318753 0.05820767 -0.20056814 0.08459292 -0.082535334 -0.12372412 -0.06684063 0.046976145 0.17365786 -0.18655841 0.07954178 0.062894076 0.027170211 -0.01439748 0.07812208 -0.024188135 0.074823536 -0.120619856 0.15376627 -0.043269675 0.09737696 0.16827257 -0.043158963 0.018400325 0.005262811 -0.00503023 -0.12145128 0.012097319 -0.15343608 0.07890697 -0.018475333 0.08110969 0.0325014 -0.025379112 -0.1438416 0.10471882 0.13958126 0.05026418 0.09265277 -0.1451683 0.070910096 -0.021183623 0.1167006 -0.0048169694 0.041034196 0.008682894 0.011835044 0.1477453 -0.01605159 0.005066544 0.030656926 0.030740554 0.0055578686 -0.02429849 0.0030944867 0.023199547 0.05321757 0.012194302 0.15947397 -0.20182191 -0.045644097 0.12764965 0.061498385 -0.042820916 -0.039400645 -0.085616745 0.104647346 0.07734779 0.0082231555 -0.03399972 -0.09122733 0.02938412 0.07834602 -0.10168959 -0.07958492 -0.13527724 -0.24414046 0.23586206 0.058824353 -0.00047430315 0.07399191 0.025641188 0.13152306 0.013818369 -0.09497371
7 -0.0351393 -0.17479385 -0.11075895 0.17758994 -0.046992194 0.2795927 0.11681585 -0.15662956 -0.0037414928 0.113733254 -0.24235502 -0.1332666 -0.13361005 -0.10725525 -0.008640165 -0.19550912 -0.032770656 -0.0005877166 0.09829195 0.10366492 -0.14944866 -0.037327707 -0.06373433 -0.0034309234 0.0042334567 -0.1765729 -0.019136164 -0.1137326 0.07358131 0.0528423 0.10360243 0.10261854 -0.05279274 0.025070768 0.062129922 0.08799877 -0.2861731 -0.017448522 -0.06278047 -0.18888457 0.1784604 0.020735662 0.07763616 -0.21582964 0.06823595 -0.21883892 0.09660665 -0.09645481 -0.14313568 -0.073216945 0.04999502 0.19961552 -0.20858753 0.09182173 0.07132702 0.028717855 -0.01761593 0.09344904 -0.029437168 0.07848053 -0.13084483 0.1735868 -0.04557047 0.11154807 0.18983798 -0.040680554 0.013035344 0.002059191 -0.010435782 -0.13911341 0.012181492 -0.1733707 0.09485766 -0.02356402 0.08778837 0.033518907 -0.034753915 -0.15623643 0.12018737 0.15266182 0.058639694 0.10258942 -0.16245614 0.07329429 -0.020791782 0.12676752 -0.0072329985 0.05147853 0.011646803 0.016662266 0.16197638 -0.019620249 -9.493457e-05 0.024176234 0.029249854 0.002504982 -0.023844216 0.0051693427 0.027469443 0.05797679 0.01303274 0.1804541 -0.22351652 -0.045872636 0.14096053 0.069276735 -0.045457423 -0.04354235 -0.09363998 0.10699879 0.093849115 0.011574112 -0.030549044 -0.09966572 0.034130894 0.08468658 -0.12120749 -0.085318305 -0.15872249 -0.27595446 0.25858048 0.06442659 -0.0035202564 0.080921076 0.031291496 0.14705184 0.0069767055 -0.11335658
1 -0.027813332 -0.15230536 -0.087692104 0.15364905 -0.040560726 0.23764178 0.09446611 -0.13813709 0.006557556 0.0989195 -0.2094372 -0.113067515 -0.122729026 -0.08677326 -0.004649602 -0.16591483 -0.031857863 0.0023559832 0.081755936 0.08372096 -0.12510099 -0.03239263 -0.057683438 -0.002138414 -0.0012188542 -0.14946854 -0.01772929 -0.10016003 0.060804565 0.041508097 0.077013835 0.085536726 -0.048788067 0.023058346 0.050262395 0.07503568 -0.24234533 -0.012317913 -0.05143902 -0.16097565 0.15308279 0.011687076 0.061352648 -0.18421257 0.052189577 -0.18834193 0.08353577 -0.077815115 -0.12045405 -0.060703844 0.046405476 0.16542946 -0.17956775 0.07504865 0.055759724 0.030647885 -0.009476919 0.06886011 -0.026641868 0.06929524 -0.112185895 0.1407565 -0.03596052 0.09321477 0.15800062 -0.039815117 0.016336774 0.008821068 -0.0040994864 -0.115746856 0.0121926265 -0.13856132 0.07906107 -0.019231489 0.07655722 0.034795053 -0.023938803 -0.13550839 0.09575214 0.12841204 0.048956387 0.08542758 -0.13782728 0.069085166 -0.019887108 0.10666487 -0.0011757689 0.04285167 0.0060284636 0.016017454 0.13321833 -0.02061286 0.0016594182 0.026945358 0.028121449 0.0044498006 -0.029634101 0.0058896616 0.019251179 0.052429292 0.009519473 0.14524004 -0.18789384 -0.046107184 0.11835848 0.054410256 -0.039958727 -0.034824844 -0.0868449 0.093307614 0.07831539 0.007226406 -0.03271521 -0.08493756 0.02544106 0.07307872 -0.102594696 -0.0709604 -0.13072555 -0.23318681 0.22221932 0.05542664 -0.0054121455 0.074792415 0.02275049 0.12384991 0.01323859 -0.093907
4 -0.02599006 -0.17530587 -0.10364231 0.17392394 -0.045425955 0.26889205 0.11343194 -0.15557821 0.006652541 0.11753332 -0.23917094 -0.12695399 -0.1391691 -0.105574235 -0.0035048905 -0.18841794 -0.035072837 -0.0018110941 0.09329532 0.09831557 -0.14360204 -0.03309051 -0.066177085 0.0020489923 0.0034391757 -0.16830172 -0.019727899 -0.11694904 0.06690172 0.053334504 0.08869565 0.10012778 -0.059596315 0.025447266 0.06198719 0.080854796 -0.27424368 -0.012402881 -0.060208675 -0.18399957 0.17328183 0.01385459 0.07416187 -0.20951271 0.0654361 -0.21721582 0.0989138 -0.09169234 -0.13571744 -0.06568042 0.049731407 0.18420812 -0.2060267 0.090011 0.062172677 0.033452448 -0.013348725 0.0819086 -0.029714549 0.08433231 -0.12688531 0.1676575 -0.039900318 0.10825475 0.18382709 -0.046919867 0.014548053 0.004370211 -0.0054227207 -0.13134581 0.015347569 -0.16430059 0.090894714 -0.02295827 0.08804659 0.04054564 -0.026738577 -0.15422873 0.11156694 0.14689301 0.05049642 0.10041656 -0.15838975 0.07739061 -0.019944841 0.12710105 -0.004064115 0.048061043 0.0140499305 0.017520599 0.15405937 -0.022223467 0.0060622245 0.028772568 0.029441116 0.008288308 -0.03149909 0.010390637 0.018504137 0.05761388 0.009146391 0.17320521 -0.21949193 -0.053519152 0.13106534 0.066822976 -0.046683844 -0.038104914 -0.097321205 0.11270932 0.08713937 0.008522898 -0.034334693 -0.09893738 0.024764974 0.08054338 -0.11669522 -0.083030894 -0.14366366 -0.2662792 0.2527879 0.06660914 -0.0068637305 0.086235635 0.023468133 0.1437182 0.01582103 -0.10865433
8 -0.03335701 -0.16127391 -0.10633688 0.15701608 -0.03889642 0.25909936 0.10272329 -0.14022084 -0.0023069573 0.1078829 -0.22879803 -0.12638895 -0.12699953 -0.102652036 -0.002559366 -0.17743318 -0.024464194 0.003524134 0.09009877 0.09562603 -0.14012618 -0.030869938 -0.059580844 -0.0005615087 0.0005932975 -0.16755441 -0.020872165 -0.11073831 0.06407433 0.048582584 0.09649321 0.09998125 -0.05194872 0.025419401 0.05797995 0.082992956 -0.26665264 -0.009956972 -0.057546504 -0.17405742 0.16586126 0.023766955 0.07196364 -0.20022525 0.06414163 -0.2025963 0.0947623 -0.08717641 -0.13277853 -0.064190954 0.054197658 0.18085116 -0.18764243 0.08693349 0.061690237 0.022523247 -0.014299911 0.08881367 -0.023361757 0.07639699 -0.11779973 0.1599048 -0.04592808 0.10660827 0.1798806 -0.041627187 0.015608689 -0.0021359683 -0.013988793 -0.12581383 0.008080875 -0.1628695 0.08658519 -0.0212692 0.081739366 0.032918755 -0.03555702 -0.14667699 0.112430975 0.1402134 0.058777984 0.09648045 -0.151349 0.06517401 -0.02688384 0.12286216 -0.006265635 0.04207814 0.0033736054 0.0107350815 0.15572265 -0.016927894 0.0045158556 0.026019422 0.024479829 -0.0019413916 -0.017535621 0.00882706 0.025617912 0.05608422 0.012922871 0.16809064 -0.2082978 -0.041302525 0.13583477 0.06146524 -0.045662858 -0.03614211 -0.08569967 0.09677484 0.08772367 0.0064428146 -0.034579903 -0.089960374 0.031086588 0.0794117 -0.113925956 -0.08446914 -0.1484625 -0.25782084 0.23724757 0.065258324 0.003169726 0.07312435 0.030310413 0.13856964 0.0061998395 -0.10749445
