9 128
5 0.015119044 -0.067972288 0.024924759 0.091680661 0.069439486 -0.04753669 0.099963084 0.19686645 0.023590598 -0.077246927 0.11281597 0.05858824 -0.039750963 -0.21886289 0.061021805 -0.22438811 0.032584634 -0.17579746 0.091787636 0.0084705213 -0.026719481 0.014182173 -0.075195923 -0.050795011 0.18166122 -0.043738887 -0.084602304 -0.0062373821 0.13792272 0.12722506 -0.07463374 -0.13921557 -0.12089632 0.10725062 -0.07044851 -0.14082813 0.13858733 0.090642758 0.025913024 -0.0087588942 -0.013956184 -0.092201658 0.18215607 0.1594115 -0.17173326 -0.050698131 0.00073607283 -0.25694481 0.0070903245 0.032574773 0.018052911 -0.023676554 -0.015492455 0.16401705 -0.11259403 -0.073250055 0.017668361 0.017197782 0.037451003 -0.076459989 0.06247694 -0.054667499 0.020096213 0.10506845 0.020082651 -0.0040332936 0.0016364957 0.06987787 -0.12568101 -0.27126041 0.016488723 0.0070671071 -0.0010531949 -0.020992775 0.11541539 -0.074494652 0.13839136 0.051225439 -0.052403565 -0.022919316 -0.084198147 -0.079180636 -0.13341387 0.032959983 0.085177816 -0.087291516 0.1895542 -0.0079458915 0.099217743 -0.025339955 0.1185005 0.029506937 0.010582852 0.0062201866 -0.22289936 0.074355789 -0.15998766 -0.26574436 0.10672555 0.042429447 -0.076948792 -0.075374886 -0.034631092 -0.080132768 -0.10688479 0.063735098 0.021772387 0.16419955 -0.082935251 -0.1399277 0.060649764 0.083836734 0.10304026 0.018486511 -0.14106272 0.22504583 0.072318554 0.055523474 -0.050539672 0.010327738 -0.048162632 -0.10183515 0.01615933 -0.28404081 -0.2492003 0.063060969 0.28522158 0.062102318
2 0.015361646 -0.065705292 0.029372502 0.090011366 0.067124858 -0.047803733 0.09803272 0.20208843 0.016922951 -0.075878359 0.10913984 0.057091173 -0.035210993 -0.22221218 0.057051413 -0.22482738 0.033582874 -0.17205018 0.092862964 0.0056816996 -0.027658217 0.012607652 -0.069699757 -0.05288839 0.17811421 -0.042130653 -0.084820539 -0.0011450248 0.14272773 0.1287422 -0.07177186 -0.13963464 -0.12250799 0.10985357 -0.075983576 -0.13720772 0.13722844 0.086850777 0.029541496 -0.01040671 -0.015012205 -0.090875633 0.18617594 0.15983209 -0.17189206 -0.053094298 -0.0017884304 -0.25713915 0.0082464917 0.033152353 0.019962946 -0.029158283 -0.017673023 0.17091537 -0.11922769 -0.071464017 0.017957212 0.022874281 0.032006714 -0.068655998 0.061421629 -0.051187769 0.016680902 0.10028292 0.020773385 -0.0010838041 -0.0014898949 0.069926724 -0.13042036 -0.26986399 0.017739311 0.0051156622 0.0050866776 -0.018799698 0.11258997 -0.070559219 0.14337578 0.051163014 -0.04739387 -0.021835424 -0.084174 -0.081948489 -0.13490212 0.032002073 0.089529745 -0.08144962 0.18626338 -0.011445589 0.1011252 -0.027539469 0.1164975 0.033992149 0.0084622568 0.0014306353 -0.22440213 0.074797779 -0.15972432 -0.26428157 0.10314073 0.042614538 -0.072743177 -0.075998157 -0.030494021 -0.080441721 -0.10341427 0.063807391 0.024857899 0.16778371 -0.08275415 -0.13797355 0.060320582 0.083832517 0.10361873 0.020639595 -0.14124362 0.22083488 0.071086757 0.05768089 -0.055558037 0.0071601309 -0.048889447 -0.10455651 0.014639009 -0.28388226 -0.24538024 0.063058667 0.28915155 0.059892476
4 0.013115525 -0.060969815 0.030242531 0.094440378 0.070045665 -0.049899567 0.092685238 0.20585561 0.021088481 -0.076958463 0.11429331 0.056216124 -0.034285206 -0.22170633 0.057735372 -0.22256152 0.036100168 -0.17675486 0.095745862 0.0085487375 -0.02800281 0.0097303297 -0.07485532 -0.057459876 0.18373957 -0.039653942 -0.086014926 -0.0005887216 0.14339355 0.12710349 -0.07590016 -0.14141376 -0.11860801 0.1052655 -0.074132547 -0.14036348 0.14085199 0.093043253 0.028230412 -0.0073657329 -0.016941935 -0.096306391 0.189224 0.16418244 -0.16832975 -0.05516373 -0.00050770765 -0.26096898 0.0046065813 0.032939948 0.021759007 -0.029553887 -0.019178806 0.16957474 -0.11665875 -0.069983415 0.016837304 0.018975373 0.036771484 -0.075987123 0.069595717 -0.055066451 0.018903105 0.10336026 0.026257571 -0.0016549419 -0.0061637382 0.07320568 -0.12819682 -0.2707729 0.01982026 0.0074056615 0.0045977351 -0.02119676 0.11751964 -0.0739474 0.14576222 0.05769835 -0.051209111 -0.015595262 -0.080500282 -0.08419694 -0.13234603 0.033556912 0.09029498 -0.085628405 0.19286697 -0.014440052 0.10039296 -0.023640148 0.11249178 0.029913569 0.0051216655 0.0046667363 -0.22158729 0.074639022 -0.16065934 -0.26652014 0.1053625 0.037784196 -0.076387599 -0.074411526 -0.028212359 -0.072042473 -0.1068567 0.069242254 0.017485769 0.16684839 -0.081525862 -0.1408744 0.067776658 0.082024559 0.10252342 0.024032425 -0.13851923 0.22575855 0.069024496 0.056638297 -0.054480623 0.008283793 -0.045361191 -0.10301124 0.010631544 -0.28555533 -0.25156954 0.062363278 0.29152834 0.060239259
6 0.017613724 -0.067879133 0.029877152 0.097844392 0.06615901 -0.044123404 0.10103881 0.20579863 0.019809507 -0.073743917 0.11213583 0.056240678 -0.039816014 -0.22439553 0.064438388 -0.22463793 0.033986092 -0.17756078 0.097463481 0.0054454957 -0.030960755 0.0081527745 -0.074199073 -0.061375462 0.18619071 -0.042327382 -0.084476806 -0.006933087 0.1397734 0.13454764 -0.07230328 -0.14303571 -0.11724593 0.10685725 -0.072823443 -0.1393919 0.14246254 0.09334816 0.02396911 -0.011653183 -0.019949423 -0.089266293 0.18920533 0.15984365 -0.17490007 -0.048383404 0.0018079962 -0.26378804 0.010844668 0.038480923 0.017767955 -0.026063519 -0.020165846 0.17078093 -0.11399543 -0.073988825 0.014150268 0.015175796 0.038204338 -0.079431385 0.068346575 -0.051502224 0.019305572 0.10412388 0.024971219 -0.0090822661 -0.0038326555 0.070908099 -0.13159624 -0.27657923 0.019149186 0.0056627439 -0.0024357808 -0.014385261 0.11862498 -0.071871042 0.14260869 0.059307657 -0.052149396 -0.018142201 -0.085161991 -0.078755952 -0.13260551 0.036772657 0.091288179 -0.087104954 0.19470711 -0.012862691 0.097932711 -0.026723698 0.12149356 0.0313389 0.011186542 0.0075260536 -0.22348402 0.074250214 -0.15755869 -0.27344939 0.10533416 0.035615984 -0.068737999 -0.080552444 -0.034788784 -0.077628464 -0.10685412 0.066117465 0.020291973 0.16869545 -0.079362489 -0.14309198 0.065107457 0.088307038 0.10311128 0.022849083 -0.14167932 0.23042133 0.070657365 0.051932454 -0.055490512 0.008531495 -0.048308317 -0.10838526 0.020943798 -0.28844333 -0.2519671 0.06141251 0.2968443 0.053721756
1 0.0079561891 -0.071061134 0.036420319 0.091550097 0.071787149 -0.053543806 0.097784489 0.20966192 0.023768412 -0.076314941 0.1107306 0.055167828 -0.035650373 -0.22748488 0.057148166 -0.23029667 0.039366119 -0.18079804 0.10164372 0.0038064288 -0.028275579 0.010757743 -0.073592059 -0.05486875 0.18706055 -0.040097777 -0.082038067 0.0028553738 0.14604242 0.12938312 -0.081002288 -0.13990305 -0.12146655 0.11042163 -0.076525971 -0.1464633 0.13704406 0.091085933 0.032728478 -0.013801184 -0.020974301 -0.099286892 0.19299799 0.1673823 -0.17543952 -0.056731798 -0.0025994077 -0.26326877 0.010822602 0.040335651 0.016089499 -0.023641871 -0.022079375 0.17652211 -0.12205862 -0.072415039 0.014702527 0.023912095 0.031851053 -0.07348258 0.068645984 -0.058924004 0.014232415 0.10545957 0.020573912 -0.0041957307 -0.00086281542 0.075207449 -0.13512287 -0.27548403 0.019774934 0.0014665591 0.0063819038 -0.018299732 0.1145131 -0.077446342 0.14967731 0.052811652 -0.047356572 -0.023871925 -0.085672371 -0.0865741 -0.13445373 0.029059295 0.088231616 -0.089921482 0.19183937 -0.013065072 0.10364199 -0.025102049 0.11798406 0.03224748 0.0087109199 0.0055260244 -0.22683056 0.074010022 -0.16271317 -0.27311 0.11183647 0.040869791 -0.078773588 -0.073634654 -0.029943671 -0.078685693 -0.10289611 0.073744737 0.024543503 0.17131771 -0.083943382 -0.14188646 0.063737944 0.082087927 0.10601543 0.027962564 -0.14377891 0.22615792 0.074648507 0.059374917 -0.058115162 0.0057043941 -0.049080499 -0.10408552 0.010097423 -0.28777075 -0.2549352 0.061662018 0.29294196 0.060295869
3 0.0093442714 -0.067566365 0.036195043 0.098003514 0.072674677 -0.05066058 0.10279435 0.21244462 0.017939093 -0.079716176 0.11807003 0.054936633 -0.042591501 -0.23539983 0.059433628 -0.23582435 0.041045073 -0.18605959 0.099553093 0.0042780493 -0.034273691 0.012729435 -0.07692422 -0.055627115 0.19457808 -0.043437369 -0.087039292 0.0006143119 0.15145518 0.13880777 -0.080523066 -0.14809492 -0.12708639 0.11490516 -0.076839156 -0.14977545 0.14658229 0.098081447 0.02987417 -0.0075185979 -0.018565793 -0.10236422 0.19644123 0.17240848 -0.18046784 -0.05587418 0.0027020746 -0.2734912 0.0034414579 0.040226545 0.023055365 -0.029237153 -0.025091629 0.17770629 -0.12279718 -0.077568963 0.01332354 0.02098782 0.034380049 -0.074945338 0.065698005 -0.054441813 0.016655041 0.11176299 0.025204044 -0.0084621599 0.0011005809 0.07745181 -0.13387214 -0.2854794 0.023064129 0.0066620247 0.00044985494 -0.01612032 0.12265062 -0.078548059 0.15326393 0.057173621 -0.048308499 -0.020341504 -0.086146191 -0.082513005 -0.13936935 0.031151086 0.093876123 -0.087531112 0.19859588 -0.011961577 0.10038352 -0.027216556 0.11908954 0.03403312 0.0077413335 0.0073380014 -0.23465243 0.078806765 -0.16905513 -0.27454159 0.11435472 0.040116496 -0.08117342 -0.078244843 -0.036687408 -0.079922393 -0.10657269 0.075564817 0.020891501 0.17333861 -0.081667617 -0.14902616 0.070251219 0.086662844 0.10853912 0.02558131 -0.14445162 0.23606063 0.071875468 0.06075884 -0.053425703 0.0086969454 -0.051499024 -0.11292193 0.012751153 -0.29641899 -0.26304951 0.065250263 0.3032251 0.062012631
8 0.017066952 -0.065137424 0.028226852 0.089006051 0.05699129 -0.038780138 0.094444975 0.18782891 0.018130293 -0.065044172 0.10070812 0.052362714 -0.039549265 -0.20544304 0.062143516 -0.20933054 0.034469627 -0.16136564 0.091504134 0.0099181188 -0.029332396 0.0090895677 -0.068635046 -0.05785628 0.1712952 -0.033633649 -0.07979878 -0.0015604711 0.12579186 0.12465181 -0.067243867 -0.1291395 -0.10875865 0.10119184 -0.069152355 -0.12963359 0.13505909 0.082704112 0.027549228 -0.0029816674 -0.018207239 -0.083025552 0.16781254 0.15213746 -0.1570777 -0.041249301 -0.002096894 -0.24109866 0.0048995283 0.035404664 0.014585691 -0.028348312 -0.011431583 0.15918535 -0.10999876 -0.066714637 0.0089415824 0.012618727 0.0320324 -0.073204421 0.057021268 -0.052041914 0.019291427 0.097865596 0.025301961 -0.0097566666 0.0026642256 0.063520953 -0.11854144 -0.25658303 0.012733126 0.0049859066 -0.0046645445 -0.015513796 0.10761137 -0.06397786 0.12634036 0.051633131 -0.048319485 -0.017766217 -0.072978571 -0.07703919 -0.12650183 0.035958458 0.077601448 -0.072909638 0.1801883 -0.0093397452 0.091098092 -0.027781526 0.11246329 0.024924614 0.0085816616 0.0050846059 -0.20720591 0.065050676 -0.14712438 -0.25268558 0.091592647 0.030218624 -0.061933368 -0.07710164 -0.038104776 -0.073270135 -0.093562566 0.054437198 0.020522242 0.14745112 -0.075598888 -0.13378339 0.054115009 0.083102673 0.097338453 0.018098772 -0.13525757 0.21391535 0.061280131 0.047448069 -0.053026401 0.009225159 -0.047754798 -0.10236146 0.022187779 -0.261747 -0.22749051 0.051424518 0.2740283 0.049634129
9 0.016331017 -0.065026335 0.024323426 0.094024092 0.064984538 -0.043957803 0.098071635 0.20454082 0.024335062 -0.074343085 0.11176699 0.060104985 -0.038313199 -0.2255192 0.061799571 -0.22354852 0.032421734 -0.17123111 0.092577666 0.009421926 -0.033926293 0.013346856 -0.069028154 -0.062897258 0.18150087 -0.037821196 -0.08751785 -0.0090370346 0.13696446 0.13328011 -0.070105493 -0.13612023 -0.12031494 0.1034027 -0.069016099 -0.14063582 0.14507258 0.090354808 0.021809731 -0.0045884531 -0.022229316 -0.093897209 0.18656148 0.16428015 -0.1735056 -0.050799243 0.00066891045 -0.26196393 0.0053323009 0.031153265 0.015439678 -0.026986536 -0.019786116 0.16997398 -0.11123928 -0.072990745 0.01239434 0.015082967 0.036099315 -0.079191454 0.065481342 -0.052932911 0.016574692 0.10549214 0.027674584 -0.0084434459 0.00013794452 0.070218138 -0.12931308 -0.27259061 0.019090967 0.010683117 0.002260027 -0.018767115 0.12038867 -0.072734587 0.13666514 0.061290879 -0.055066779 -0.0155425 -0.078279726 -0.080947794 -0.13716348 0.032364123 0.086377412 -0.083990842 0.1917934 -0.011470221 0.09500026 -0.024727894 0.12092188 0.028136512 0.013837647 0.0097752372 -0.22243997 0.068987243 -0.15480402 -0.2685338 0.10166561 0.038199596 -0.074121766 -0.082642421 -0.038662374 -0.075662464 -0.10405087 0.062910281 0.017506765 0.16789754 -0.084247403 -0.14483298 0.066619962 0.087400466 0.10641684 0.018871792 -0.14128056 0.22426458 0.064455003 0.056244802 -0.056846939 0.012966605 -0.050262928 -0.10841492 0.01769462 -0.28244349 -0.25040641 0.063626803 0.29289329 0.058108062
7 0.020594453 -0.064582974 0.02321754 0.092072442 0.060544342 -0.040236171 0.098375656 0.19918504 0.024107572 -0.073246352 0.10713403 0.056733593 -0.038025349 -0.22201365 0.064667448 -0.21814848 0.034242645 -0.17087176 0.089413129 0.0070738601 -0.029392041 0.0087329829 -0.070717573 -0.054825164 0.18280649 -0.042549834 -0.087863117 -0.0079840124 0.13250962 0.12808698 -0.06727057 -0.13330242 -0.11898184 0.10039628 -0.073125541 -0.13668445 0.13724123 0.085155658 0.022976674 -0.0093617933 -0.022376982 -0.087622859 0.18256566 0.16044275 -0.16823436 -0.045425463 0.002237607 -0.25501493 0.0099354321 0.034985296 0.014782695 -0.023807572 -0.017436842 0.16900906 -0.11446402 -0.068919815 0.013920958 0.012363496 0.038958501 -0.071948074 0.064591341 -0.05111118 0.019652713 0.10445383 0.02363625 -0.0060191634 0.00084943778 0.07261806 -0.12507506 -0.27085793 0.015831146 0.010341686 -0.0047144284 -0.015148154 0.11649085 -0.068798095 0.13512108 0.058261395 -0.051055931 -0.020656692 -0.079113312 -0.074452892 -0.13259703 0.038579702 0.084403679 -0.08501862 0.18461688 -0.0099669006 0.092693686 -0.023448363 0.12101498 0.028724987 0.013813918 0.0059392946 -0.21875043 0.073863976 -0.15092947 -0.26686993 0.097486168 0.036779616 -0.071482643 -0.077078134 -0.03977 -0.076852165 -0.1036459 0.058313914 0.015953822 0.1619288 -0.075593606 -0.13884933 0.063891545 0.089316942 0.099841118 0.016336164 -0.14099824 0.22159144 0.065616563 0.05000614 -0.057019584 0.014056508 -0.050187625 -0.10156216 0.022344576 -0.27674139 -0.24618466 0.057501573 0.2901082 0.058947183
